digraph Tree {
node [shape=box, style="filled, rounded", color="black", fontname=helvetica] ;
edge [fontname=helvetica] ;
0 [label=<Mr &le; 0.5<br/>gini = 0.473<br/>samples = 891<br/>value = [549, 342]<br/>class = survived>, fillcolor="#e5813960"] ;
1 [label=<FamilySize &le; 3.5<br/>gini = 0.422<br/>samples = 374<br/>value = [113, 261]<br/>class = not-survived>, fillcolor="#399de591"] ;
0 -> 1 [labeldistance=2.5, labelangle=45, headlabel="True"] ;
3 [label=<Fare &le; 18.375<br/>gini = 0.346<br/>samples = 323<br/>value = [72, 251]<br/>class = not-survived>, fillcolor="#399de5b6"] ;
1 -> 3 ;
5 [label=<Age_cat_0 &le; 0.5<br/>gini = 0.461<br/>samples = 150<br/>value = [54, 96]<br/>class = not-survived>, fillcolor="#399de570"] ;
3 -> 5 ;
15 [label=<isMale &le; 0.5<br/>gini = 0.491<br/>samples = 92<br/>value = [40, 52]<br/>class = not-survived>, fillcolor="#399de53b"] ;
5 -> 15 ;
17 [label=<Pclass_3 &le; 0.5<br/>gini = 0.475<br/>samples = 85<br/>value = [33, 52]<br/>class = not-survived>, fillcolor="#399de55d"] ;
15 -> 17 ;
19 [label=<gini = 0.175<br/>samples = 31<br/>value = [3, 28]<br/>class = not-survived>, fillcolor="#399de5e4"] ;
17 -> 19 ;
20 [label=<gini = 0.494<br/>samples = 54<br/>value = [30, 24]<br/>class = survived>, fillcolor="#e5813933"] ;
17 -> 20 ;
18 [label=<gini = 0.0<br/>samples = 7<br/>value = [7, 0]<br/>class = survived>, fillcolor="#e58139ff"] ;
15 -> 18 ;
16 [label=<gini = 0.366<br/>samples = 58<br/>value = [14, 44]<br/>class = not-survived>, fillcolor="#399de5ae"] ;
5 -> 16 ;
6 [label=<Fare &le; 28.856<br/>gini = 0.186<br/>samples = 173<br/>value = [18, 155]<br/>class = not-survived>, fillcolor="#399de5e1"] ;
3 -> 6 ;
29 [label=<Age &le; 38.0<br/>gini = 0.316<br/>samples = 61<br/>value = [12, 49]<br/>class = not-survived>, fillcolor="#399de5c1"] ;
6 -> 29 ;
31 [label=<gini = 0.194<br/>samples = 46<br/>value = [5, 41]<br/>class = not-survived>, fillcolor="#399de5e0"] ;
29 -> 31 ;
32 [label=<isMale &le; 0.5<br/>gini = 0.498<br/>samples = 15<br/>value = [7, 8]<br/>class = not-survived>, fillcolor="#399de520"] ;
29 -> 32 ;
33 [label=<gini = 0.397<br/>samples = 11<br/>value = [3, 8]<br/>class = not-survived>, fillcolor="#399de59f"] ;
32 -> 33 ;
34 [label=<gini = 0.0<br/>samples = 4<br/>value = [4, 0]<br/>class = survived>, fillcolor="#e58139ff"] ;
32 -> 34 ;
30 [label=<isMale &le; 0.5<br/>gini = 0.101<br/>samples = 112<br/>value = [6, 106]<br/>class = not-survived>, fillcolor="#399de5f1"] ;
6 -> 30 ;
35 [label=<gini = 0.041<br/>samples = 96<br/>value = [2, 94]<br/>class = not-survived>, fillcolor="#399de5fa"] ;
30 -> 35 ;
36 [label=<Master &le; 0.5<br/>gini = 0.375<br/>samples = 16<br/>value = [4, 12]<br/>class = not-survived>, fillcolor="#399de5aa"] ;
30 -> 36 ;
37 [label=<gini = 0.494<br/>samples = 9<br/>value = [4, 5]<br/>class = not-survived>, fillcolor="#399de533"] ;
36 -> 37 ;
38 [label=<gini = 0.0<br/>samples = 7<br/>value = [0, 7]<br/>class = not-survived>, fillcolor="#399de5ff"] ;
36 -> 38 ;
4 [label=<Has_Cabin &le; 0.5<br/>gini = 0.315<br/>samples = 51<br/>value = [41, 10]<br/>class = survived>, fillcolor="#e58139c1"] ;
1 -> 4 ;
9 [label=<gini = 0.223<br/>samples = 47<br/>value = [41, 6]<br/>class = survived>, fillcolor="#e58139da"] ;
4 -> 9 ;
10 [label=<gini = 0.0<br/>samples = 4<br/>value = [0, 4]<br/>class = not-survived>, fillcolor="#399de5ff"] ;
4 -> 10 ;
2 [label=<Fare &le; 26.269<br/>gini = 0.264<br/>samples = 517<br/>value = [436, 81]<br/>class = survived>, fillcolor="#e58139d0"] ;
0 -> 2 [labeldistance=2.5, labelangle=-45, headlabel="False"] ;
7 [label=<gini = 0.18<br/>samples = 390<br/>value = [351, 39]<br/>class = survived>, fillcolor="#e58139e3"] ;
2 -> 7 ;
8 [label=<Fare &le; 26.775<br/>gini = 0.443<br/>samples = 127<br/>value = [85, 42]<br/>class = survived>, fillcolor="#e5813981"] ;
2 -> 8 ;
11 [label=<Age &le; 53.5<br/>gini = 0.43<br/>samples = 16<br/>value = [5, 11]<br/>class = not-survived>, fillcolor="#399de58b"] ;
8 -> 11 ;
13 [label=<gini = 0.153<br/>samples = 12<br/>value = [1, 11]<br/>class = not-survived>, fillcolor="#399de5e8"] ;
11 -> 13 ;
14 [label=<gini = 0.0<br/>samples = 4<br/>value = [4, 0]<br/>class = survived>, fillcolor="#e58139ff"] ;
11 -> 14 ;
12 [label=<Has_Cabin &le; 0.5<br/>gini = 0.403<br/>samples = 111<br/>value = [80, 31]<br/>class = survived>, fillcolor="#e581399c"] ;
8 -> 12 ;
21 [label=<SibSp &le; 0.5<br/>gini = 0.245<br/>samples = 42<br/>value = [36, 6]<br/>class = survived>, fillcolor="#e58139d4"] ;
12 -> 21 ;
25 [label=<Pclass_3 &le; 0.5<br/>gini = 0.42<br/>samples = 20<br/>value = [14, 6]<br/>class = survived>, fillcolor="#e5813992"] ;
21 -> 25 ;
27 [label=<gini = 0.142<br/>samples = 13<br/>value = [12, 1]<br/>class = survived>, fillcolor="#e58139ea"] ;
25 -> 27 ;
28 [label=<gini = 0.408<br/>samples = 7<br/>value = [2, 5]<br/>class = not-survived>, fillcolor="#399de599"] ;
25 -> 28 ;
26 [label=<gini = 0.0<br/>samples = 22<br/>value = [22, 0]<br/>class = survived>, fillcolor="#e58139ff"] ;
21 -> 26 ;
22 [label=<Age &le; 43.5<br/>gini = 0.462<br/>samples = 69<br/>value = [44, 25]<br/>class = survived>, fillcolor="#e581396e"] ;
12 -> 22 ;
23 [label=<gini = 0.5<br/>samples = 41<br/>value = [21, 20]<br/>class = survived>, fillcolor="#e581390c"] ;
22 -> 23 ;
24 [label=<gini = 0.293<br/>samples = 28<br/>value = [23, 5]<br/>class = survived>, fillcolor="#e58139c8"] ;
22 -> 24 ;
}